Language model created by QuickLM on Wed Mar 22 06:07:11 EDT 2017
Copyright (c) 1996-2010 Carnegie Mellon University and Alexander I. Rudnicky

The model is in standard ARPA format, designed by Doug Paul while he was at MITRE.

The code that was used to produce this language model is available in Open Source.
Please visit http://www.speech.cs.cmu.edu/tools/ for more information

The (fixed) discount mass is 0.5. The backoffs are computed using the ratio method.
This model based on a corpus of 91 sentences and 93 words

\data\
ngram 1=93
ngram 2=182
ngram 3=91

\1-grams:
-0.7782 </s> -0.3010
-0.7782 <s> -0.2218
-2.7372 上一个频道 -0.2218
-2.7372 上一曲 -0.2218
-2.7372 上海 -0.2218
-2.7372 下一个频道 -0.2218
-2.7372 下一曲 -0.2218
-2.7372 中央电视台 -0.2218
-2.7372 中央电视台(2) -0.2218
-2.7372 体育频道 -0.2218
-2.7372 停止音乐 -0.2218
-2.7372 关闭冰箱 -0.2218
-2.7372 关闭卧室电灯 -0.2218
-2.7372 关闭厕所电灯 -0.2218
-2.7372 关闭厨房电灯 -0.2218
-2.7372 关闭台灯 -0.2218
-2.7372 关闭客厅电灯 -0.2218
-2.7372 关闭客房电灯 -0.2218
-2.7372 关闭总开关 -0.2218
-2.7372 关闭总电源 -0.2218
-2.7372 关闭所有电灯 -0.2218
-2.7372 关闭洗手间电灯 -0.2218
-2.7372 关闭洗衣机 -0.2218
-2.7372 关闭热水器 -0.2218
-2.7372 关闭电视机 -0.2218
-2.7372 关闭空气净化器 -0.2218
-2.7372 关闭空调 -0.2218
-2.7372 关闭走廊电灯 -0.2218
-2.7372 关闭阳台电灯 -0.2218
-2.7372 关闭风扇 -0.2218
-2.7372 关闭饮水器 -0.2218
-2.7372 北京 -0.2218
-2.7372 升高到 -0.2218
-2.7372 右声道 -0.2218
-2.7372 娱乐频道 -0.2218
-2.7372 左声道 -0.2218
-2.7372 广州 -0.2218
-2.7372 当前日期 -0.2218
-2.7372 当前时间 -0.2218
-2.7372 打开冰箱 -0.2218
-2.7372 打开卧室电灯 -0.2218
-2.7372 打开厕所电灯 -0.2218
-2.7372 打开厨房电灯 -0.2218
-2.7372 打开台灯 -0.2218
-2.7372 打开客厅电灯 -0.2218
-2.7372 打开客房电灯 -0.2218
-2.7372 打开总开关 -0.2218
-2.7372 打开总电源 -0.2218
-2.7372 打开所有电灯 -0.2218
-2.7372 打开洗手间电灯 -0.2218
-2.7372 打开洗衣机 -0.2218
-2.7372 打开热水器 -0.2218
-2.7372 打开电视机 -0.2218
-2.7372 打开空气净化器 -0.2218
-2.7372 打开空调 -0.2218
-2.7372 打开走廊电灯 -0.2218
-2.7372 打开阳台电灯 -0.2218
-2.7372 打开风扇 -0.2218
-2.7372 打开饮水器 -0.2218
-2.7372 摄氏度 -0.2218
-2.7372 播放音乐 -0.2218
-2.7372 新闻频道 -0.2218
-2.7372 暂停音乐 -0.2218
-2.7372 深圳 -0.2218
-2.7372 电影频道 -0.2218
-2.7372 百分之一 -0.2218
-2.7372 百分之二 -0.2218
-2.7372 百分之二十 -0.2218
-2.7372 百分之五 -0.2218
-2.7372 百分之十 -0.2218
-2.7372 综合频道 -0.2218
-2.7372 设置空调制冷模式 -0.2218
-2.7372 设置空调加热模式 -0.2218
-2.7372 设置饮水器制冷模式 -0.2218
-2.7372 设置饮水器加热模式 -0.2218
-2.7372 语音合成 -0.2218
-2.7372 语音识别 -0.2218
-2.7372 调低风扇风速 -0.2218
-2.7372 调大电视机音量 -0.2218
-2.7372 调大音乐音量 -0.2218
-2.7372 调小电视机音量 -0.2218
-2.7372 调小音乐音量 -0.2218
-2.7372 调高风扇风速 -0.2218
-2.7372 重新启动 -0.2218
-2.7372 重新开始 -0.2218
-2.7372 阿尔法 -0.2218
-2.7372 阿尔法(2) -0.2218
-2.7372 阿里克萨 -0.2218
-2.7372 降低到 -0.2218
-2.7372 预定火车票 -0.2218
-2.7372 预定酒店 -0.2218
-2.7372 预定飞机票 -0.2218
-2.7372 香港 -0.2218

\2-grams:
-2.2601 <s> 上一个频道 0.0000
-2.2601 <s> 上一曲 0.0000
-2.2601 <s> 上海 0.0000
-2.2601 <s> 下一个频道 0.0000
-2.2601 <s> 下一曲 0.0000
-2.2601 <s> 中央电视台 0.0000
-2.2601 <s> 中央电视台(2) 0.0000
-2.2601 <s> 体育频道 0.0000
-2.2601 <s> 停止音乐 0.0000
-2.2601 <s> 关闭冰箱 0.0000
-2.2601 <s> 关闭卧室电灯 0.0000
-2.2601 <s> 关闭厕所电灯 0.0000
-2.2601 <s> 关闭厨房电灯 0.0000
-2.2601 <s> 关闭台灯 0.0000
-2.2601 <s> 关闭客厅电灯 0.0000
-2.2601 <s> 关闭客房电灯 0.0000
-2.2601 <s> 关闭总开关 0.0000
-2.2601 <s> 关闭总电源 0.0000
-2.2601 <s> 关闭所有电灯 0.0000
-2.2601 <s> 关闭洗手间电灯 0.0000
-2.2601 <s> 关闭洗衣机 0.0000
-2.2601 <s> 关闭热水器 0.0000
-2.2601 <s> 关闭电视机 0.0000
-2.2601 <s> 关闭空气净化器 0.0000
-2.2601 <s> 关闭空调 0.0000
-2.2601 <s> 关闭走廊电灯 0.0000
-2.2601 <s> 关闭阳台电灯 0.0000
-2.2601 <s> 关闭风扇 0.0000
-2.2601 <s> 关闭饮水器 0.0000
-2.2601 <s> 北京 0.0000
-2.2601 <s> 升高到 0.0000
-2.2601 <s> 右声道 0.0000
-2.2601 <s> 娱乐频道 0.0000
-2.2601 <s> 左声道 0.0000
-2.2601 <s> 广州 0.0000
-2.2601 <s> 当前日期 0.0000
-2.2601 <s> 当前时间 0.0000
-2.2601 <s> 打开冰箱 0.0000
-2.2601 <s> 打开卧室电灯 0.0000
-2.2601 <s> 打开厕所电灯 0.0000
-2.2601 <s> 打开厨房电灯 0.0000
-2.2601 <s> 打开台灯 0.0000
-2.2601 <s> 打开客厅电灯 0.0000
-2.2601 <s> 打开客房电灯 0.0000
-2.2601 <s> 打开总开关 0.0000
-2.2601 <s> 打开总电源 0.0000
-2.2601 <s> 打开所有电灯 0.0000
-2.2601 <s> 打开洗手间电灯 0.0000
-2.2601 <s> 打开洗衣机 0.0000
-2.2601 <s> 打开热水器 0.0000
-2.2601 <s> 打开电视机 0.0000
-2.2601 <s> 打开空气净化器 0.0000
-2.2601 <s> 打开空调 0.0000
-2.2601 <s> 打开走廊电灯 0.0000
-2.2601 <s> 打开阳台电灯 0.0000
-2.2601 <s> 打开风扇 0.0000
-2.2601 <s> 打开饮水器 0.0000
-2.2601 <s> 摄氏度 0.0000
-2.2601 <s> 播放音乐 0.0000
-2.2601 <s> 新闻频道 0.0000
-2.2601 <s> 暂停音乐 0.0000
-2.2601 <s> 深圳 0.0000
-2.2601 <s> 电影频道 0.0000
-2.2601 <s> 百分之一 0.0000
-2.2601 <s> 百分之二 0.0000
-2.2601 <s> 百分之二十 0.0000
-2.2601 <s> 百分之五 0.0000
-2.2601 <s> 百分之十 0.0000
-2.2601 <s> 综合频道 0.0000
-2.2601 <s> 设置空调制冷模式 0.0000
-2.2601 <s> 设置空调加热模式 0.0000
-2.2601 <s> 设置饮水器制冷模式 0.0000
-2.2601 <s> 设置饮水器加热模式 0.0000
-2.2601 <s> 语音合成 0.0000
-2.2601 <s> 语音识别 0.0000
-2.2601 <s> 调低风扇风速 0.0000
-2.2601 <s> 调大电视机音量 0.0000
-2.2601 <s> 调大音乐音量 0.0000
-2.2601 <s> 调小电视机音量 0.0000
-2.2601 <s> 调小音乐音量 0.0000
-2.2601 <s> 调高风扇风速 0.0000
-2.2601 <s> 重新启动 0.0000
-2.2601 <s> 重新开始 0.0000
-2.2601 <s> 阿尔法 0.0000
-2.2601 <s> 阿尔法(2) 0.0000
-2.2601 <s> 阿里克萨 0.0000
-2.2601 <s> 降低到 0.0000
-2.2601 <s> 预定火车票 0.0000
-2.2601 <s> 预定酒店 0.0000
-2.2601 <s> 预定飞机票 0.0000
-2.2601 <s> 香港 0.0000
-0.3010 上一个频道 </s> -0.3010
-0.3010 上一曲 </s> -0.3010
-0.3010 上海 </s> -0.3010
-0.3010 下一个频道 </s> -0.3010
-0.3010 下一曲 </s> -0.3010
-0.3010 中央电视台 </s> -0.3010
-0.3010 中央电视台(2) </s> -0.3010
-0.3010 体育频道 </s> -0.3010
-0.3010 停止音乐 </s> -0.3010
-0.3010 关闭冰箱 </s> -0.3010
-0.3010 关闭卧室电灯 </s> -0.3010
-0.3010 关闭厕所电灯 </s> -0.3010
-0.3010 关闭厨房电灯 </s> -0.3010
-0.3010 关闭台灯 </s> -0.3010
-0.3010 关闭客厅电灯 </s> -0.3010
-0.3010 关闭客房电灯 </s> -0.3010
-0.3010 关闭总开关 </s> -0.3010
-0.3010 关闭总电源 </s> -0.3010
-0.3010 关闭所有电灯 </s> -0.3010
-0.3010 关闭洗手间电灯 </s> -0.3010
-0.3010 关闭洗衣机 </s> -0.3010
-0.3010 关闭热水器 </s> -0.3010
-0.3010 关闭电视机 </s> -0.3010
-0.3010 关闭空气净化器 </s> -0.3010
-0.3010 关闭空调 </s> -0.3010
-0.3010 关闭走廊电灯 </s> -0.3010
-0.3010 关闭阳台电灯 </s> -0.3010
-0.3010 关闭风扇 </s> -0.3010
-0.3010 关闭饮水器 </s> -0.3010
-0.3010 北京 </s> -0.3010
-0.3010 升高到 </s> -0.3010
-0.3010 右声道 </s> -0.3010
-0.3010 娱乐频道 </s> -0.3010
-0.3010 左声道 </s> -0.3010
-0.3010 广州 </s> -0.3010
-0.3010 当前日期 </s> -0.3010
-0.3010 当前时间 </s> -0.3010
-0.3010 打开冰箱 </s> -0.3010
-0.3010 打开卧室电灯 </s> -0.3010
-0.3010 打开厕所电灯 </s> -0.3010
-0.3010 打开厨房电灯 </s> -0.3010
-0.3010 打开台灯 </s> -0.3010
-0.3010 打开客厅电灯 </s> -0.3010
-0.3010 打开客房电灯 </s> -0.3010
-0.3010 打开总开关 </s> -0.3010
-0.3010 打开总电源 </s> -0.3010
-0.3010 打开所有电灯 </s> -0.3010
-0.3010 打开洗手间电灯 </s> -0.3010
-0.3010 打开洗衣机 </s> -0.3010
-0.3010 打开热水器 </s> -0.3010
-0.3010 打开电视机 </s> -0.3010
-0.3010 打开空气净化器 </s> -0.3010
-0.3010 打开空调 </s> -0.3010
-0.3010 打开走廊电灯 </s> -0.3010
-0.3010 打开阳台电灯 </s> -0.3010
-0.3010 打开风扇 </s> -0.3010
-0.3010 打开饮水器 </s> -0.3010
-0.3010 摄氏度 </s> -0.3010
-0.3010 播放音乐 </s> -0.3010
-0.3010 新闻频道 </s> -0.3010
-0.3010 暂停音乐 </s> -0.3010
-0.3010 深圳 </s> -0.3010
-0.3010 电影频道 </s> -0.3010
-0.3010 百分之一 </s> -0.3010
-0.3010 百分之二 </s> -0.3010
-0.3010 百分之二十 </s> -0.3010
-0.3010 百分之五 </s> -0.3010
-0.3010 百分之十 </s> -0.3010
-0.3010 综合频道 </s> -0.3010
-0.3010 设置空调制冷模式 </s> -0.3010
-0.3010 设置空调加热模式 </s> -0.3010
-0.3010 设置饮水器制冷模式 </s> -0.3010
-0.3010 设置饮水器加热模式 </s> -0.3010
-0.3010 语音合成 </s> -0.3010
-0.3010 语音识别 </s> -0.3010
-0.3010 调低风扇风速 </s> -0.3010
-0.3010 调大电视机音量 </s> -0.3010
-0.3010 调大音乐音量 </s> -0.3010
-0.3010 调小电视机音量 </s> -0.3010
-0.3010 调小音乐音量 </s> -0.3010
-0.3010 调高风扇风速 </s> -0.3010
-0.3010 重新启动 </s> -0.3010
-0.3010 重新开始 </s> -0.3010
-0.3010 阿尔法 </s> -0.3010
-0.3010 阿尔法(2) </s> -0.3010
-0.3010 阿里克萨 </s> -0.3010
-0.3010 降低到 </s> -0.3010
-0.3010 预定火车票 </s> -0.3010
-0.3010 预定酒店 </s> -0.3010
-0.3010 预定飞机票 </s> -0.3010
-0.3010 香港 </s> -0.3010

\3-grams:
-0.3010 <s> 上一个频道 </s>
-0.3010 <s> 上一曲 </s>
-0.3010 <s> 上海 </s>
-0.3010 <s> 下一个频道 </s>
-0.3010 <s> 下一曲 </s>
-0.3010 <s> 中央电视台 </s>
-0.3010 <s> 中央电视台(2) </s>
-0.3010 <s> 体育频道 </s>
-0.3010 <s> 停止音乐 </s>
-0.3010 <s> 关闭冰箱 </s>
-0.3010 <s> 关闭卧室电灯 </s>
-0.3010 <s> 关闭厕所电灯 </s>
-0.3010 <s> 关闭厨房电灯 </s>
-0.3010 <s> 关闭台灯 </s>
-0.3010 <s> 关闭客厅电灯 </s>
-0.3010 <s> 关闭客房电灯 </s>
-0.3010 <s> 关闭总开关 </s>
-0.3010 <s> 关闭总电源 </s>
-0.3010 <s> 关闭所有电灯 </s>
-0.3010 <s> 关闭洗手间电灯 </s>
-0.3010 <s> 关闭洗衣机 </s>
-0.3010 <s> 关闭热水器 </s>
-0.3010 <s> 关闭电视机 </s>
-0.3010 <s> 关闭空气净化器 </s>
-0.3010 <s> 关闭空调 </s>
-0.3010 <s> 关闭走廊电灯 </s>
-0.3010 <s> 关闭阳台电灯 </s>
-0.3010 <s> 关闭风扇 </s>
-0.3010 <s> 关闭饮水器 </s>
-0.3010 <s> 北京 </s>
-0.3010 <s> 升高到 </s>
-0.3010 <s> 右声道 </s>
-0.3010 <s> 娱乐频道 </s>
-0.3010 <s> 左声道 </s>
-0.3010 <s> 广州 </s>
-0.3010 <s> 当前日期 </s>
-0.3010 <s> 当前时间 </s>
-0.3010 <s> 打开冰箱 </s>
-0.3010 <s> 打开卧室电灯 </s>
-0.3010 <s> 打开厕所电灯 </s>
-0.3010 <s> 打开厨房电灯 </s>
-0.3010 <s> 打开台灯 </s>
-0.3010 <s> 打开客厅电灯 </s>
-0.3010 <s> 打开客房电灯 </s>
-0.3010 <s> 打开总开关 </s>
-0.3010 <s> 打开总电源 </s>
-0.3010 <s> 打开所有电灯 </s>
-0.3010 <s> 打开洗手间电灯 </s>
-0.3010 <s> 打开洗衣机 </s>
-0.3010 <s> 打开热水器 </s>
-0.3010 <s> 打开电视机 </s>
-0.3010 <s> 打开空气净化器 </s>
-0.3010 <s> 打开空调 </s>
-0.3010 <s> 打开走廊电灯 </s>
-0.3010 <s> 打开阳台电灯 </s>
-0.3010 <s> 打开风扇 </s>
-0.3010 <s> 打开饮水器 </s>
-0.3010 <s> 摄氏度 </s>
-0.3010 <s> 播放音乐 </s>
-0.3010 <s> 新闻频道 </s>
-0.3010 <s> 暂停音乐 </s>
-0.3010 <s> 深圳 </s>
-0.3010 <s> 电影频道 </s>
-0.3010 <s> 百分之一 </s>
-0.3010 <s> 百分之二 </s>
-0.3010 <s> 百分之二十 </s>
-0.3010 <s> 百分之五 </s>
-0.3010 <s> 百分之十 </s>
-0.3010 <s> 综合频道 </s>
-0.3010 <s> 设置空调制冷模式 </s>
-0.3010 <s> 设置空调加热模式 </s>
-0.3010 <s> 设置饮水器制冷模式 </s>
-0.3010 <s> 设置饮水器加热模式 </s>
-0.3010 <s> 语音合成 </s>
-0.3010 <s> 语音识别 </s>
-0.3010 <s> 调低风扇风速 </s>
-0.3010 <s> 调大电视机音量 </s>
-0.3010 <s> 调大音乐音量 </s>
-0.3010 <s> 调小电视机音量 </s>
-0.3010 <s> 调小音乐音量 </s>
-0.3010 <s> 调高风扇风速 </s>
-0.3010 <s> 重新启动 </s>
-0.3010 <s> 重新开始 </s>
-0.3010 <s> 阿尔法 </s>
-0.3010 <s> 阿尔法(2) </s>
-0.3010 <s> 阿里克萨 </s>
-0.3010 <s> 降低到 </s>
-0.3010 <s> 预定火车票 </s>
-0.3010 <s> 预定酒店 </s>
-0.3010 <s> 预定飞机票 </s>
-0.3010 <s> 香港 </s>

\end\
