Language model created by QuickLM on Thu Mar 23 06:20:35 EDT 2017
Copyright (c) 1996-2010 Carnegie Mellon University and Alexander I. Rudnicky

The model is in standard ARPA format, designed by Doug Paul while he was at MITRE.

The code that was used to produce this language model is available in Open Source.
Please visit http://www.speech.cs.cmu.edu/tools/ for more information

The (fixed) discount mass is 0.5. The backoffs are computed using the ratio method.
This model based on a corpus of 29 sentences and 31 words

\data\
ngram 1=31
ngram 2=58
ngram 3=29

\1-grams:
-0.7782 </s> -0.3010
-0.7782 <s> -0.2218
-2.2405 上海 -0.2218
-2.2405 北京 -0.2218
-2.2405 升高到 -0.2218
-2.2405 哈喽阿尔法 -0.2218
-2.2405 哈喽阿尔法(2) -0.2218
-2.2405 哈喽阿里克萨 -0.2218
-2.2405 广州 -0.2218
-2.2405 当前日期 -0.2218
-2.2405 当前时间 -0.2218
-2.2405 摄氏度 -0.2218
-2.2405 机器人 -0.2218
-2.2405 深圳 -0.2218
-2.2405 百分之一 -0.2218
-2.2405 百分之二 -0.2218
-2.2405 百分之二十 -0.2218
-2.2405 百分之五 -0.2218
-2.2405 百分之十 -0.2218
-2.2405 语音合成 -0.2218
-2.2405 语音识别 -0.2218
-2.2405 重新启动 -0.2218
-2.2405 重新开始 -0.2218
-2.2405 阿里克萨 -0.2218
-2.2405 降低到 -0.2218
-2.2405 音箱 -0.2218
-2.2405 预定火车票 -0.2218
-2.2405 预定酒店 -0.2218
-2.2405 预定飞机票 -0.2218
-2.2405 香港 -0.2218
-2.2405 麦克风 -0.2218

\2-grams:
-1.7634 <s> 上海 0.0000
-1.7634 <s> 北京 0.0000
-1.7634 <s> 升高到 0.0000
-1.7634 <s> 哈喽阿尔法 0.0000
-1.7634 <s> 哈喽阿尔法(2) 0.0000
-1.7634 <s> 哈喽阿里克萨 0.0000
-1.7634 <s> 广州 0.0000
-1.7634 <s> 当前日期 0.0000
-1.7634 <s> 当前时间 0.0000
-1.7634 <s> 摄氏度 0.0000
-1.7634 <s> 机器人 0.0000
-1.7634 <s> 深圳 0.0000
-1.7634 <s> 百分之一 0.0000
-1.7634 <s> 百分之二 0.0000
-1.7634 <s> 百分之二十 0.0000
-1.7634 <s> 百分之五 0.0000
-1.7634 <s> 百分之十 0.0000
-1.7634 <s> 语音合成 0.0000
-1.7634 <s> 语音识别 0.0000
-1.7634 <s> 重新启动 0.0000
-1.7634 <s> 重新开始 0.0000
-1.7634 <s> 阿里克萨 0.0000
-1.7634 <s> 降低到 0.0000
-1.7634 <s> 音箱 0.0000
-1.7634 <s> 预定火车票 0.0000
-1.7634 <s> 预定酒店 0.0000
-1.7634 <s> 预定飞机票 0.0000
-1.7634 <s> 香港 0.0000
-1.7634 <s> 麦克风 0.0000
-0.3010 上海 </s> -0.3010
-0.3010 北京 </s> -0.3010
-0.3010 升高到 </s> -0.3010
-0.3010 哈喽阿尔法 </s> -0.3010
-0.3010 哈喽阿尔法(2) </s> -0.3010
-0.3010 哈喽阿里克萨 </s> -0.3010
-0.3010 广州 </s> -0.3010
-0.3010 当前日期 </s> -0.3010
-0.3010 当前时间 </s> -0.3010
-0.3010 摄氏度 </s> -0.3010
-0.3010 机器人 </s> -0.3010
-0.3010 深圳 </s> -0.3010
-0.3010 百分之一 </s> -0.3010
-0.3010 百分之二 </s> -0.3010
-0.3010 百分之二十 </s> -0.3010
-0.3010 百分之五 </s> -0.3010
-0.3010 百分之十 </s> -0.3010
-0.3010 语音合成 </s> -0.3010
-0.3010 语音识别 </s> -0.3010
-0.3010 重新启动 </s> -0.3010
-0.3010 重新开始 </s> -0.3010
-0.3010 阿里克萨 </s> -0.3010
-0.3010 降低到 </s> -0.3010
-0.3010 音箱 </s> -0.3010
-0.3010 预定火车票 </s> -0.3010
-0.3010 预定酒店 </s> -0.3010
-0.3010 预定飞机票 </s> -0.3010
-0.3010 香港 </s> -0.3010
-0.3010 麦克风 </s> -0.3010

\3-grams:
-0.3010 <s> 上海 </s>
-0.3010 <s> 北京 </s>
-0.3010 <s> 升高到 </s>
-0.3010 <s> 哈喽阿尔法 </s>
-0.3010 <s> 哈喽阿尔法(2) </s>
-0.3010 <s> 哈喽阿里克萨 </s>
-0.3010 <s> 广州 </s>
-0.3010 <s> 当前日期 </s>
-0.3010 <s> 当前时间 </s>
-0.3010 <s> 摄氏度 </s>
-0.3010 <s> 机器人 </s>
-0.3010 <s> 深圳 </s>
-0.3010 <s> 百分之一 </s>
-0.3010 <s> 百分之二 </s>
-0.3010 <s> 百分之二十 </s>
-0.3010 <s> 百分之五 </s>
-0.3010 <s> 百分之十 </s>
-0.3010 <s> 语音合成 </s>
-0.3010 <s> 语音识别 </s>
-0.3010 <s> 重新启动 </s>
-0.3010 <s> 重新开始 </s>
-0.3010 <s> 阿里克萨 </s>
-0.3010 <s> 降低到 </s>
-0.3010 <s> 音箱 </s>
-0.3010 <s> 预定火车票 </s>
-0.3010 <s> 预定酒店 </s>
-0.3010 <s> 预定飞机票 </s>
-0.3010 <s> 香港 </s>
-0.3010 <s> 麦克风 </s>

\end\
