Language model created by QuickLM on Thu Mar 23 07:06:48 EDT 2017
Copyright (c) 1996-2010 Carnegie Mellon University and Alexander I. Rudnicky

The model is in standard ARPA format, designed by Doug Paul while he was at MITRE.

The code that was used to produce this language model is available in Open Source.
Please visit http://www.speech.cs.cmu.edu/tools/ for more information

The (fixed) discount mass is 0.5. The backoffs are computed using the ratio method.
This model based on a corpus of 99 sentences and 101 words

\data\
ngram 1=101
ngram 2=198
ngram 3=99

\1-grams:
-0.7782 </s> -0.3010
-0.7782 <s> -0.2218
-2.7738 上一个频道 -0.2218
-2.7738 上一曲 -0.2218
-2.7738 上海 -0.2218
-2.7738 下一个频道 -0.2218
-2.7738 下一曲 -0.2218
-2.7738 中央电视台 -0.2218
-2.7738 中央电视台(2) -0.2218
-2.7738 体育频道 -0.2218
-2.7738 停止音乐 -0.2218
-2.7738 关闭冰箱 -0.2218
-2.7738 关闭卧室电灯 -0.2218
-2.7738 关闭厕所电灯 -0.2218
-2.7738 关闭厨房电灯 -0.2218
-2.7738 关闭台灯 -0.2218
-2.7738 关闭客厅电灯 -0.2218
-2.7738 关闭客房电灯 -0.2218
-2.7738 关闭总开关 -0.2218
-2.7738 关闭总电源 -0.2218
-2.7738 关闭所有电灯 -0.2218
-2.7738 关闭洗手间电灯 -0.2218
-2.7738 关闭洗衣机 -0.2218
-2.7738 关闭热水器 -0.2218
-2.7738 关闭电视机 -0.2218
-2.7738 关闭空气净化器 -0.2218
-2.7738 关闭空调 -0.2218
-2.7738 关闭走廊电灯 -0.2218
-2.7738 关闭阳台电灯 -0.2218
-2.7738 关闭风扇 -0.2218
-2.7738 关闭饮水器 -0.2218
-2.7738 北京 -0.2218
-2.7738 升高到 -0.2218
-2.7738 右声道 -0.2218
-2.7738 哈喽阿尔法 -0.2218
-2.7738 哈喽阿里克萨 -0.2218
-2.7738 娱乐频道 -0.2218
-2.7738 左声道 -0.2218
-2.7738 广州 -0.2218
-2.7738 当前日期 -0.2218
-2.7738 当前时间 -0.2218
-2.7738 打开冰箱 -0.2218
-2.7738 打开卧室电灯 -0.2218
-2.7738 打开厕所电灯 -0.2218
-2.7738 打开厨房电灯 -0.2218
-2.7738 打开台灯 -0.2218
-2.7738 打开客厅电灯 -0.2218
-2.7738 打开客房电灯 -0.2218
-2.7738 打开总开关 -0.2218
-2.7738 打开总电源 -0.2218
-2.7738 打开所有电灯 -0.2218
-2.7738 打开洗手间电灯 -0.2218
-2.7738 打开洗衣机 -0.2218
-2.7738 打开热水器 -0.2218
-2.7738 打开电视机 -0.2218
-2.7738 打开空气净化器 -0.2218
-2.7738 打开空调 -0.2218
-2.7738 打开走廊电灯 -0.2218
-2.7738 打开阳台电灯 -0.2218
-2.7738 打开风扇 -0.2218
-2.7738 打开饮水器 -0.2218
-2.7738 摄氏度 -0.2218
-2.7738 播放音乐 -0.2218
-2.7738 新闻频道 -0.2218
-2.7738 暂停音乐 -0.2218
-2.7738 机器人 -0.2218
-2.7738 深圳 -0.2218
-2.7738 电影频道 -0.2218
-2.7738 百分之一 -0.2218
-2.7738 百分之二 -0.2218
-2.7738 百分之二十 -0.2218
-2.7738 百分之五 -0.2218
-2.7738 百分之十 -0.2218
-2.7738 空调升高一度 -0.2218
-2.7738 空调升高五度 -0.2218
-2.7738 空调降低一度 -0.2218
-2.7738 空调降低五度 -0.2218
-2.7738 综合频道 -0.2218
-2.7738 设置空调制冷模式 -0.2218
-2.7738 设置空调加热模式 -0.2218
-2.7738 设置饮水器制冷模式 -0.2218
-2.7738 设置饮水器加热模式 -0.2218
-2.7738 语音合成 -0.2218
-2.7738 语音识别 -0.2218
-2.7738 调低风扇风速 -0.2218
-2.7738 调大电视机音量 -0.2218
-2.7738 调大音乐音量 -0.2218
-2.7738 调小电视机音量 -0.2218
-2.7738 调小音乐音量 -0.2218
-2.7738 调高风扇风速 -0.2218
-2.7738 重新启动 -0.2218
-2.7738 重新开始 -0.2218
-2.7738 阿尔法 -0.2218
-2.7738 阿里克萨 -0.2218
-2.7738 降低到 -0.2218
-2.7738 音箱 -0.2218
-2.7738 预定火车票 -0.2218
-2.7738 预定酒店 -0.2218
-2.7738 预定飞机票 -0.2218
-2.7738 香港 -0.2218
-2.7738 麦克风 -0.2218

\2-grams:
-2.2967 <s> 上一个频道 0.0000
-2.2967 <s> 上一曲 0.0000
-2.2967 <s> 上海 0.0000
-2.2967 <s> 下一个频道 0.0000
-2.2967 <s> 下一曲 0.0000
-2.2967 <s> 中央电视台 0.0000
-2.2967 <s> 中央电视台(2) 0.0000
-2.2967 <s> 体育频道 0.0000
-2.2967 <s> 停止音乐 0.0000
-2.2967 <s> 关闭冰箱 0.0000
-2.2967 <s> 关闭卧室电灯 0.0000
-2.2967 <s> 关闭厕所电灯 0.0000
-2.2967 <s> 关闭厨房电灯 0.0000
-2.2967 <s> 关闭台灯 0.0000
-2.2967 <s> 关闭客厅电灯 0.0000
-2.2967 <s> 关闭客房电灯 0.0000
-2.2967 <s> 关闭总开关 0.0000
-2.2967 <s> 关闭总电源 0.0000
-2.2967 <s> 关闭所有电灯 0.0000
-2.2967 <s> 关闭洗手间电灯 0.0000
-2.2967 <s> 关闭洗衣机 0.0000
-2.2967 <s> 关闭热水器 0.0000
-2.2967 <s> 关闭电视机 0.0000
-2.2967 <s> 关闭空气净化器 0.0000
-2.2967 <s> 关闭空调 0.0000
-2.2967 <s> 关闭走廊电灯 0.0000
-2.2967 <s> 关闭阳台电灯 0.0000
-2.2967 <s> 关闭风扇 0.0000
-2.2967 <s> 关闭饮水器 0.0000
-2.2967 <s> 北京 0.0000
-2.2967 <s> 升高到 0.0000
-2.2967 <s> 右声道 0.0000
-2.2967 <s> 哈喽阿尔法 0.0000
-2.2967 <s> 哈喽阿里克萨 0.0000
-2.2967 <s> 娱乐频道 0.0000
-2.2967 <s> 左声道 0.0000
-2.2967 <s> 广州 0.0000
-2.2967 <s> 当前日期 0.0000
-2.2967 <s> 当前时间 0.0000
-2.2967 <s> 打开冰箱 0.0000
-2.2967 <s> 打开卧室电灯 0.0000
-2.2967 <s> 打开厕所电灯 0.0000
-2.2967 <s> 打开厨房电灯 0.0000
-2.2967 <s> 打开台灯 0.0000
-2.2967 <s> 打开客厅电灯 0.0000
-2.2967 <s> 打开客房电灯 0.0000
-2.2967 <s> 打开总开关 0.0000
-2.2967 <s> 打开总电源 0.0000
-2.2967 <s> 打开所有电灯 0.0000
-2.2967 <s> 打开洗手间电灯 0.0000
-2.2967 <s> 打开洗衣机 0.0000
-2.2967 <s> 打开热水器 0.0000
-2.2967 <s> 打开电视机 0.0000
-2.2967 <s> 打开空气净化器 0.0000
-2.2967 <s> 打开空调 0.0000
-2.2967 <s> 打开走廊电灯 0.0000
-2.2967 <s> 打开阳台电灯 0.0000
-2.2967 <s> 打开风扇 0.0000
-2.2967 <s> 打开饮水器 0.0000
-2.2967 <s> 摄氏度 0.0000
-2.2967 <s> 播放音乐 0.0000
-2.2967 <s> 新闻频道 0.0000
-2.2967 <s> 暂停音乐 0.0000
-2.2967 <s> 机器人 0.0000
-2.2967 <s> 深圳 0.0000
-2.2967 <s> 电影频道 0.0000
-2.2967 <s> 百分之一 0.0000
-2.2967 <s> 百分之二 0.0000
-2.2967 <s> 百分之二十 0.0000
-2.2967 <s> 百分之五 0.0000
-2.2967 <s> 百分之十 0.0000
-2.2967 <s> 空调升高一度 0.0000
-2.2967 <s> 空调升高五度 0.0000
-2.2967 <s> 空调降低一度 0.0000
-2.2967 <s> 空调降低五度 0.0000
-2.2967 <s> 综合频道 0.0000
-2.2967 <s> 设置空调制冷模式 0.0000
-2.2967 <s> 设置空调加热模式 0.0000
-2.2967 <s> 设置饮水器制冷模式 0.0000
-2.2967 <s> 设置饮水器加热模式 0.0000
-2.2967 <s> 语音合成 0.0000
-2.2967 <s> 语音识别 0.0000
-2.2967 <s> 调低风扇风速 0.0000
-2.2967 <s> 调大电视机音量 0.0000
-2.2967 <s> 调大音乐音量 0.0000
-2.2967 <s> 调小电视机音量 0.0000
-2.2967 <s> 调小音乐音量 0.0000
-2.2967 <s> 调高风扇风速 0.0000
-2.2967 <s> 重新启动 0.0000
-2.2967 <s> 重新开始 0.0000
-2.2967 <s> 阿尔法 0.0000
-2.2967 <s> 阿里克萨 0.0000
-2.2967 <s> 降低到 0.0000
-2.2967 <s> 音箱 0.0000
-2.2967 <s> 预定火车票 0.0000
-2.2967 <s> 预定酒店 0.0000
-2.2967 <s> 预定飞机票 0.0000
-2.2967 <s> 香港 0.0000
-2.2967 <s> 麦克风 0.0000
-0.3010 上一个频道 </s> -0.3010
-0.3010 上一曲 </s> -0.3010
-0.3010 上海 </s> -0.3010
-0.3010 下一个频道 </s> -0.3010
-0.3010 下一曲 </s> -0.3010
-0.3010 中央电视台 </s> -0.3010
-0.3010 中央电视台(2) </s> -0.3010
-0.3010 体育频道 </s> -0.3010
-0.3010 停止音乐 </s> -0.3010
-0.3010 关闭冰箱 </s> -0.3010
-0.3010 关闭卧室电灯 </s> -0.3010
-0.3010 关闭厕所电灯 </s> -0.3010
-0.3010 关闭厨房电灯 </s> -0.3010
-0.3010 关闭台灯 </s> -0.3010
-0.3010 关闭客厅电灯 </s> -0.3010
-0.3010 关闭客房电灯 </s> -0.3010
-0.3010 关闭总开关 </s> -0.3010
-0.3010 关闭总电源 </s> -0.3010
-0.3010 关闭所有电灯 </s> -0.3010
-0.3010 关闭洗手间电灯 </s> -0.3010
-0.3010 关闭洗衣机 </s> -0.3010
-0.3010 关闭热水器 </s> -0.3010
-0.3010 关闭电视机 </s> -0.3010
-0.3010 关闭空气净化器 </s> -0.3010
-0.3010 关闭空调 </s> -0.3010
-0.3010 关闭走廊电灯 </s> -0.3010
-0.3010 关闭阳台电灯 </s> -0.3010
-0.3010 关闭风扇 </s> -0.3010
-0.3010 关闭饮水器 </s> -0.3010
-0.3010 北京 </s> -0.3010
-0.3010 升高到 </s> -0.3010
-0.3010 右声道 </s> -0.3010
-0.3010 哈喽阿尔法 </s> -0.3010
-0.3010 哈喽阿里克萨 </s> -0.3010
-0.3010 娱乐频道 </s> -0.3010
-0.3010 左声道 </s> -0.3010
-0.3010 广州 </s> -0.3010
-0.3010 当前日期 </s> -0.3010
-0.3010 当前时间 </s> -0.3010
-0.3010 打开冰箱 </s> -0.3010
-0.3010 打开卧室电灯 </s> -0.3010
-0.3010 打开厕所电灯 </s> -0.3010
-0.3010 打开厨房电灯 </s> -0.3010
-0.3010 打开台灯 </s> -0.3010
-0.3010 打开客厅电灯 </s> -0.3010
-0.3010 打开客房电灯 </s> -0.3010
-0.3010 打开总开关 </s> -0.3010
-0.3010 打开总电源 </s> -0.3010
-0.3010 打开所有电灯 </s> -0.3010
-0.3010 打开洗手间电灯 </s> -0.3010
-0.3010 打开洗衣机 </s> -0.3010
-0.3010 打开热水器 </s> -0.3010
-0.3010 打开电视机 </s> -0.3010
-0.3010 打开空气净化器 </s> -0.3010
-0.3010 打开空调 </s> -0.3010
-0.3010 打开走廊电灯 </s> -0.3010
-0.3010 打开阳台电灯 </s> -0.3010
-0.3010 打开风扇 </s> -0.3010
-0.3010 打开饮水器 </s> -0.3010
-0.3010 摄氏度 </s> -0.3010
-0.3010 播放音乐 </s> -0.3010
-0.3010 新闻频道 </s> -0.3010
-0.3010 暂停音乐 </s> -0.3010
-0.3010 机器人 </s> -0.3010
-0.3010 深圳 </s> -0.3010
-0.3010 电影频道 </s> -0.3010
-0.3010 百分之一 </s> -0.3010
-0.3010 百分之二 </s> -0.3010
-0.3010 百分之二十 </s> -0.3010
-0.3010 百分之五 </s> -0.3010
-0.3010 百分之十 </s> -0.3010
-0.3010 空调升高一度 </s> -0.3010
-0.3010 空调升高五度 </s> -0.3010
-0.3010 空调降低一度 </s> -0.3010
-0.3010 空调降低五度 </s> -0.3010
-0.3010 综合频道 </s> -0.3010
-0.3010 设置空调制冷模式 </s> -0.3010
-0.3010 设置空调加热模式 </s> -0.3010
-0.3010 设置饮水器制冷模式 </s> -0.3010
-0.3010 设置饮水器加热模式 </s> -0.3010
-0.3010 语音合成 </s> -0.3010
-0.3010 语音识别 </s> -0.3010
-0.3010 调低风扇风速 </s> -0.3010
-0.3010 调大电视机音量 </s> -0.3010
-0.3010 调大音乐音量 </s> -0.3010
-0.3010 调小电视机音量 </s> -0.3010
-0.3010 调小音乐音量 </s> -0.3010
-0.3010 调高风扇风速 </s> -0.3010
-0.3010 重新启动 </s> -0.3010
-0.3010 重新开始 </s> -0.3010
-0.3010 阿尔法 </s> -0.3010
-0.3010 阿里克萨 </s> -0.3010
-0.3010 降低到 </s> -0.3010
-0.3010 音箱 </s> -0.3010
-0.3010 预定火车票 </s> -0.3010
-0.3010 预定酒店 </s> -0.3010
-0.3010 预定飞机票 </s> -0.3010
-0.3010 香港 </s> -0.3010
-0.3010 麦克风 </s> -0.3010

\3-grams:
-0.3010 <s> 上一个频道 </s>
-0.3010 <s> 上一曲 </s>
-0.3010 <s> 上海 </s>
-0.3010 <s> 下一个频道 </s>
-0.3010 <s> 下一曲 </s>
-0.3010 <s> 中央电视台 </s>
-0.3010 <s> 中央电视台(2) </s>
-0.3010 <s> 体育频道 </s>
-0.3010 <s> 停止音乐 </s>
-0.3010 <s> 关闭冰箱 </s>
-0.3010 <s> 关闭卧室电灯 </s>
-0.3010 <s> 关闭厕所电灯 </s>
-0.3010 <s> 关闭厨房电灯 </s>
-0.3010 <s> 关闭台灯 </s>
-0.3010 <s> 关闭客厅电灯 </s>
-0.3010 <s> 关闭客房电灯 </s>
-0.3010 <s> 关闭总开关 </s>
-0.3010 <s> 关闭总电源 </s>
-0.3010 <s> 关闭所有电灯 </s>
-0.3010 <s> 关闭洗手间电灯 </s>
-0.3010 <s> 关闭洗衣机 </s>
-0.3010 <s> 关闭热水器 </s>
-0.3010 <s> 关闭电视机 </s>
-0.3010 <s> 关闭空气净化器 </s>
-0.3010 <s> 关闭空调 </s>
-0.3010 <s> 关闭走廊电灯 </s>
-0.3010 <s> 关闭阳台电灯 </s>
-0.3010 <s> 关闭风扇 </s>
-0.3010 <s> 关闭饮水器 </s>
-0.3010 <s> 北京 </s>
-0.3010 <s> 升高到 </s>
-0.3010 <s> 右声道 </s>
-0.3010 <s> 哈喽阿尔法 </s>
-0.3010 <s> 哈喽阿里克萨 </s>
-0.3010 <s> 娱乐频道 </s>
-0.3010 <s> 左声道 </s>
-0.3010 <s> 广州 </s>
-0.3010 <s> 当前日期 </s>
-0.3010 <s> 当前时间 </s>
-0.3010 <s> 打开冰箱 </s>
-0.3010 <s> 打开卧室电灯 </s>
-0.3010 <s> 打开厕所电灯 </s>
-0.3010 <s> 打开厨房电灯 </s>
-0.3010 <s> 打开台灯 </s>
-0.3010 <s> 打开客厅电灯 </s>
-0.3010 <s> 打开客房电灯 </s>
-0.3010 <s> 打开总开关 </s>
-0.3010 <s> 打开总电源 </s>
-0.3010 <s> 打开所有电灯 </s>
-0.3010 <s> 打开洗手间电灯 </s>
-0.3010 <s> 打开洗衣机 </s>
-0.3010 <s> 打开热水器 </s>
-0.3010 <s> 打开电视机 </s>
-0.3010 <s> 打开空气净化器 </s>
-0.3010 <s> 打开空调 </s>
-0.3010 <s> 打开走廊电灯 </s>
-0.3010 <s> 打开阳台电灯 </s>
-0.3010 <s> 打开风扇 </s>
-0.3010 <s> 打开饮水器 </s>
-0.3010 <s> 摄氏度 </s>
-0.3010 <s> 播放音乐 </s>
-0.3010 <s> 新闻频道 </s>
-0.3010 <s> 暂停音乐 </s>
-0.3010 <s> 机器人 </s>
-0.3010 <s> 深圳 </s>
-0.3010 <s> 电影频道 </s>
-0.3010 <s> 百分之一 </s>
-0.3010 <s> 百分之二 </s>
-0.3010 <s> 百分之二十 </s>
-0.3010 <s> 百分之五 </s>
-0.3010 <s> 百分之十 </s>
-0.3010 <s> 空调升高一度 </s>
-0.3010 <s> 空调升高五度 </s>
-0.3010 <s> 空调降低一度 </s>
-0.3010 <s> 空调降低五度 </s>
-0.3010 <s> 综合频道 </s>
-0.3010 <s> 设置空调制冷模式 </s>
-0.3010 <s> 设置空调加热模式 </s>
-0.3010 <s> 设置饮水器制冷模式 </s>
-0.3010 <s> 设置饮水器加热模式 </s>
-0.3010 <s> 语音合成 </s>
-0.3010 <s> 语音识别 </s>
-0.3010 <s> 调低风扇风速 </s>
-0.3010 <s> 调大电视机音量 </s>
-0.3010 <s> 调大音乐音量 </s>
-0.3010 <s> 调小电视机音量 </s>
-0.3010 <s> 调小音乐音量 </s>
-0.3010 <s> 调高风扇风速 </s>
-0.3010 <s> 重新启动 </s>
-0.3010 <s> 重新开始 </s>
-0.3010 <s> 阿尔法 </s>
-0.3010 <s> 阿里克萨 </s>
-0.3010 <s> 降低到 </s>
-0.3010 <s> 音箱 </s>
-0.3010 <s> 预定火车票 </s>
-0.3010 <s> 预定酒店 </s>
-0.3010 <s> 预定飞机票 </s>
-0.3010 <s> 香港 </s>
-0.3010 <s> 麦克风 </s>

\end\
